svm_type c_svc
kernel_type linear
nr_class 2
total_sv 114
rho 1.79649
label 1 -1
nr_sv 56 58
SV
1 1:0.67 2:1 3:0.5 
1 1:0.73 2:1 3:0.5 
1 1:1 2:1 3:0.5 
1 1:0.43 2:0.5 3:1 
1 1:0.75 2:1 3:1 
1 1:0.49 2:1 3:1 
1 1:0.67 2:1 3:0.5 
1 1:0.67 2:1 3:0.5 
1 1:0.82 2:1 3:0.5 
1 1:0.5 2:0 3:0 
1 1:0.56 2:1 3:1 
1 1:0.71 2:1 3:0.5 
1 1:0.6 2:1 3:1 
1 1:0.56 2:1 3:1 
1 1:0.86 2:1 3:1 
1 1:0.62 2:1 3:0.5 
1 1:0.86 2:1 3:0.5 
1 1:0.58 2:1 3:1 
1 1:0.58 2:1 3:0.5 
1 1:0.83 2:1 3:0.5 
1 1:0.43 2:0.5 3:1 
1 1:0.45 2:0.5 3:1 
1 1:0.56 2:1 3:1 
1 1:0.62 2:1 3:0.5 
1 1:0.56 2:1 3:1 
1 1:0.69 2:1 3:0.5 
1 1:0.5 2:0 3:0 
1 1:0.5 2:1 3:1 
1 1:0.86 2:1 3:0 
1 1:0.6 2:1 3:0 
1 1:0.86 2:1 3:0 
1 1:0.6 2:1 3:0 
1 1:0.71 2:1 3:0 
1 1:0.6 2:1 3:0.5 
1 1:1 2:1 3:0.5 
1 1:1 2:1 3:0.5 
1 1:0.58 2:1 3:1 
1 1:0.62 2:1 3:1 
1 1:0.78 2:0.5 3:0 
1 1:0.5 2:0 3:0 
1 1:0.73 2:1 3:0.5 
1 1:0.86 2:1 3:0.5 
1 1:0.89 2:1 3:0.5 
1 1:0.8 2:0 3:0 
1 1:0.59 2:1 3:1 
1 1:0.5 2:0 3:0 
1 1:1 2:0 3:0 
1 1:0.5 2:1 3:1 
1 1:0.8 2:1 3:1 
1 1:0.67 2:1 3:1 
1 1:1 2:0.5 3:0 
1 1:0.75 2:0 3:0 
1 1:0.64 2:1 3:0.5 
1 1:0.73 2:1 3:0.5 
1 1:0.71 2:1 3:0.5 
1 1:0.56 2:1 3:1 
-1 1:0.56 2:1 3:0.5 
-0.07412418287376765 1:1 2:0.5 3:0 
-1 1:1 2:0.5 3:0 
-1 1:1 2:0.5 3:0 
-1 1:1 2:0.5 3:0 
-1 1:0.47 2:1 3:0.5 
-1 1:1 2:0.5 3:0 
-1 1:1 2:0.5 3:0 
-1 1:0.43 2:1 3:1 
-1 1:0.5 2:1 3:0.5 
-1 1:0.5 2:1 3:1 
-1 1:0.54 2:1 3:0.5 
-1 1:0.49 2:1 3:1 
-1 1:0.71 2:1 3:1 
-1 1:0.5 2:1 3:1 
-1 1:0.5 2:1 3:1 
-1 1:0.5 2:1 3:1 
-1 1:0.8 2:1 3:0 
-1 1:0.45 2:1 3:1 
-1 1:0.78 2:1 3:1 
-0.1920095216876971 1:0.33 2:1 3:0.5 
-1 1:1 2:0.5 3:0 
-1 1:1 2:0.5 3:0 
-1 1:0.46 2:1 3:1 
-1 1:0.5 2:1 3:0.5 
-1 1:0.43 2:1 3:1 
-1 1:1 2:0.5 3:0 
-1 1:1 2:0.5 3:0 
-1 1:1 2:0.5 3:0 
-1 1:0.43 2:1 3:0.5 
-1 1:0.89 2:1 3:0.5 
-1 1:1 2:0.5 3:0 
-1 1:0.54 2:1 3:1 
-1 1:1 2:0.5 3:0 
-1 1:0.5 2:1 3:1 
-1 1:0.4 2:1 3:1 
-1 1:1 2:0.5 3:0 
-1 1:0.4 2:1 3:1 
-1 1:0.4 2:1 3:1 
-1 1:0.4 2:1 3:1 
-1 1:1 2:0.5 3:0 
-1 1:0.75 2:0.5 3:1 
-1 1:1 2:0.5 3:0.5 
-1 1:0.5 2:1 3:1 
-1 1:0.45 2:1 3:1 
-1 1:0.5 2:1 3:1 
-1 1:0.4 2:1 3:1 
-1 1:1 2:0.5 3:0 
-1 1:1 2:0.5 3:0 
-1 1:0.5 2:1 3:1 
-1 1:1 2:0.5 3:0 
-0.7338662954385358 1:0.17 2:1 3:1 
-1 1:0.5 2:1 3:1 
-1 1:0.54 2:1 3:0.5 
-1 1:0.4 2:1 3:0.5 
-1 1:1 2:0.5 3:0 
-1 1:0.43 2:1 3:0.5 
-1 1:0.4 2:1 3:0.5 
